digraph Tree {
node [shape=box, style="filled", color="black"] ;
0 [label="x2 <= 13.5\ngini = 0.4995\nsamples = 490\nvalue = [237, 253]", fillcolor="#399de510"] ;
1 [label="x1 <= 9.5\ngini = 0.298\nsamples = 225\nvalue = [41, 184]", fillcolor="#399de5c6"] ;
0 -> 1 [labeldistance=2.5, labelangle=45, headlabel="True"] ;
2 [label="x2 <= 6.5\ngini = 0.4698\nsamples = 61\nvalue = [38, 23]", fillcolor="#e5813965"] ;
1 -> 2 ;
3 [label="x1 <= 1.5\ngini = 0.3911\nsamples = 30\nvalue = [8, 22]", fillcolor="#399de5a2"] ;
2 -> 3 ;
4 [label="x2 <= 1.0\ngini = 0.2778\nsamples = 6\nvalue = [5, 1]", fillcolor="#e58139cc"] ;
3 -> 4 ;
5 [label="gini = 0.0\nsamples = 1\nvalue = [0, 1]", fillcolor="#399de5ff"] ;
4 -> 5 ;
6 [label="gini = 0.0\nsamples = 5\nvalue = [5, 0]", fillcolor="#e58139ff"] ;
4 -> 6 ;
7 [label="x2 <= 3.5\ngini = 0.2188\nsamples = 24\nvalue = [3, 21]", fillcolor="#399de5db"] ;
3 -> 7 ;
8 [label="gini = 0.0\nsamples = 16\nvalue = [0, 16]", fillcolor="#399de5ff"] ;
7 -> 8 ;
9 [label="x1 <= 5.5\ngini = 0.4688\nsamples = 8\nvalue = [3, 5]", fillcolor="#399de566"] ;
7 -> 9 ;
10 [label="gini = 0.0\nsamples = 3\nvalue = [3, 0]", fillcolor="#e58139ff"] ;
9 -> 10 ;
11 [label="gini = 0.0\nsamples = 5\nvalue = [0, 5]", fillcolor="#399de5ff"] ;
9 -> 11 ;
12 [label="x1 <= 8.5\ngini = 0.0624\nsamples = 31\nvalue = [30, 1]", fillcolor="#e58139f6"] ;
2 -> 12 ;
13 [label="gini = 0.0\nsamples = 28\nvalue = [28, 0]", fillcolor="#e58139ff"] ;
12 -> 13 ;
14 [label="x2 <= 9.5\ngini = 0.4444\nsamples = 3\nvalue = [2, 1]", fillcolor="#e581397f"] ;
12 -> 14 ;
15 [label="gini = 0.0\nsamples = 1\nvalue = [0, 1]", fillcolor="#399de5ff"] ;
14 -> 15 ;
16 [label="gini = 0.0\nsamples = 2\nvalue = [2, 0]", fillcolor="#e58139ff"] ;
14 -> 16 ;
17 [label="x1 <= 12.5\ngini = 0.0359\nsamples = 164\nvalue = [3, 161]", fillcolor="#399de5fa"] ;
1 -> 17 ;
18 [label="x2 <= 11.0\ngini = 0.255\nsamples = 20\nvalue = [3, 17]", fillcolor="#399de5d2"] ;
17 -> 18 ;
19 [label="gini = 0.0\nsamples = 17\nvalue = [0, 17]", fillcolor="#399de5ff"] ;
18 -> 19 ;
20 [label="gini = 0.0\nsamples = 3\nvalue = [3, 0]", fillcolor="#e58139ff"] ;
18 -> 20 ;
21 [label="gini = 0.0\nsamples = 144\nvalue = [0, 144]", fillcolor="#399de5ff"] ;
17 -> 21 ;
22 [label="x1 <= 20.5\ngini = 0.3852\nsamples = 265\nvalue = [196, 69]", fillcolor="#e58139a5"] ;
0 -> 22 [labeldistance=2.5, labelangle=-45, headlabel="False"] ;
23 [label="x1 <= 15.5\ngini = 0.0717\nsamples = 188\nvalue = [181, 7]", fillcolor="#e58139f5"] ;
22 -> 23 ;
24 [label="gini = 0.0\nsamples = 147\nvalue = [147, 0]", fillcolor="#e58139ff"] ;
23 -> 24 ;
25 [label="x2 <= 19.5\ngini = 0.2832\nsamples = 41\nvalue = [34, 7]", fillcolor="#e58139ca"] ;
23 -> 25 ;
26 [label="x1 <= 16.5\ngini = 0.3457\nsamples = 9\nvalue = [2, 7]", fillcolor="#399de5b6"] ;
25 -> 26 ;
27 [label="x2 <= 15.5\ngini = 0.4444\nsamples = 3\nvalue = [2, 1]", fillcolor="#e581397f"] ;
26 -> 27 ;
28 [label="gini = 0.0\nsamples = 1\nvalue = [0, 1]", fillcolor="#399de5ff"] ;
27 -> 28 ;
29 [label="gini = 0.0\nsamples = 2\nvalue = [2, 0]", fillcolor="#e58139ff"] ;
27 -> 29 ;
30 [label="gini = 0.0\nsamples = 6\nvalue = [0, 6]", fillcolor="#399de5ff"] ;
26 -> 30 ;
31 [label="gini = 0.0\nsamples = 32\nvalue = [32, 0]", fillcolor="#e58139ff"] ;
25 -> 31 ;
32 [label="x2 <= 25.5\ngini = 0.3137\nsamples = 77\nvalue = [15, 62]", fillcolor="#399de5c1"] ;
22 -> 32 ;
33 [label="x2 <= 22.5\ngini = 0.1676\nsamples = 65\nvalue = [6, 59]", fillcolor="#399de5e5"] ;
32 -> 33 ;
34 [label="gini = 0.0\nsamples = 45\nvalue = [0, 45]", fillcolor="#399de5ff"] ;
33 -> 34 ;
35 [label="x1 <= 23.5\ngini = 0.42\nsamples = 20\nvalue = [6, 14]", fillcolor="#399de592"] ;
33 -> 35 ;
36 [label="gini = 0.0\nsamples = 6\nvalue = [6, 0]", fillcolor="#e58139ff"] ;
35 -> 36 ;
37 [label="gini = 0.0\nsamples = 14\nvalue = [0, 14]", fillcolor="#399de5ff"] ;
35 -> 37 ;
38 [label="x1 <= 27.5\ngini = 0.375\nsamples = 12\nvalue = [9, 3]", fillcolor="#e58139aa"] ;
32 -> 38 ;
39 [label="gini = 0.0\nsamples = 9\nvalue = [9, 0]", fillcolor="#e58139ff"] ;
38 -> 39 ;
40 [label="gini = 0.0\nsamples = 3\nvalue = [0, 3]", fillcolor="#399de5ff"] ;
38 -> 40 ;
}